{"a": [2.887830186596224e-06, -0.00011720306358862029, 0.001675912921882078, -0.007792987604742019, 0.009365658733195446], "b": [3.983445126025649e-06, -0.00015981440897316844, 0.0022730973688134897, -0.01207004138203386, 0.016582201639791825], "c": [-6.043555899417856e-08, 3.46336030145776e-05, -0.0007118064088655359, 0.004133926748441645, -0.0056237282211739304], "d": [8.566800843880401e-06, -0.00038112110425657673, 0.005624680713287924, -0.02934884277036349, 0.03894729571203681], "e": [2.3948726437540056e-06, -9.340695657741454e-05, 0.0012822490818478513, -0.005314201343417537, 0.006530144418111934], "f": [2.313254974473313e-06, -7.438033675633419e-05, 0.0008804851854910262, -0.004225139880856061, 0.005685973744355392], "g": [1.9631251573799104e-06, -6.923653103376183e-05, 0.0009828679112681034, -0.005374786462184802, 0.007570008827682107], "h": [1.6492654120692806e-05, -0.000744699003647286, 0.010906320826360337, -0.05661881940149082, 0.07441165079239721], "i": [6.283274783752701e-06, -0.0002896489852131475, 0.00447996408172185, -0.023668853735681065, 0.031127150710637614], "j": [8.489581028342128e-06, -0.0003406644024183223, 0.0043839558485188794, -0.01987152015731587, 0.02296576489482893], "k": [1.4579125907766108e-05, -0.000657764279789627, 0.00964186049195081, -0.04989936888923234, 0.06546716718502273], "l": [-6.372482105255407e-07, 6.168480593048839e-05, -0.0011400385205002743, 0.006772689736197473, -0.009378901792875646], "m": [5.21910645685246e-06, -0.0002142100944724131, 0.0030018245403953428, -0.015292176403326366, 0.019962649031289956], "n": [9.467532970598233e-07, -1.8713081043985093e-05, 0.00014711950936823498, -0.00025747926546182425, 0.0004593622071652845], "o": [2.6077719150260155e-06, -0.0001025401236468361, 0.0014006529173945167, -0.005808411408251821, 0.006863281244988834], "p": [-1.615370363506226e-08, 3.0488254998747703e-05, -0.0006121074155848433, 0.003410288341842913, -0.004436362695452105], "q": [3.667966781254034e-05, -0.001735822819848852, 0.026436140002922447, -0.1419005425348672, 0.19134547828357082], "r": [6.266487259131999e-06, -0.0002772899393480957, 0.004068280199250329, -0.02020540899491838, 0.02567952401292117], "s": [3.2039279536959888e-06, -0.00013196445506047914, 0.0019624472645488173, -0.010366867708893765, 0.013982550322886355], "t": [9.081421512498259e-06, -0.00040318260302787967, 0.005943234836976254, -0.031259099191186836, 0.04162672158874307], "u": [2.994751608592115e-07, -1.39083784994292e-06, 9.26985591205078e-05, -0.0005706517387913484, 0.0005773650086367887], "v": [2.333866829235428e-05, -0.0010742769583791147, 0.015954808848169643, -0.08374855500635955, 0.11090581302477952], "w": [3.7083070570817996e-07, 4.0917087653657696e-05, -0.0012857183921864553, 0.009582727382300473, -0.015381619342834437], "x": [4.369003848784096e-06, -0.00016471523143547756, 0.002090126777941928, -0.009620784600858138, 0.011664895160413904], "y": [7.44456631105215e-06, -0.00032691018210180393, 0.004745771854901731, -0.023876264909882504, 0.03049068877546653], "z": [1.3857050754517688e-05, -0.0006197737925372463, 0.00902500068354313, -0.046644313557973924, 0.06112954372190531]}